<?xml version="1.0"?>
<opencv_storage>
<myhaar type_id="opencv-haar-classifier">
  <size>
    24 24</size>
  <stages>
    <_>
      <trees>
        <_>
          <_>
            <feature>
              <rects>
                <_>
                  11 10 6 2 -1.</_>
                <_>
                  11 10 3 2 2.</_></rects>
              <tilted>1</tilted></feature>
            <threshold>0.0170448496937752</threshold>
            <left_val>-1.</left_val>
            <right_val>0.6936166286468506</right_val></_></_></trees>
      <stage_threshold>0.6936166286468506</stage_threshold>
      <parent>-1</parent>
      <next>-1</next></_>
    <_>
      <trees>
        <_>
          <_>
            <feature>
              <rects>
                <_>
                  10 5 3 5 -1.</_>
                <_>
                  11 6 1 5 3.</_></rects>
              <tilted>1</tilted></feature>
            <threshold>-9.2898886650800705e-003</threshold>
            <left_val>0.8563432097434998</left_val>
            <right_val>-0.8218414783477783</right_val></_></_>
        <_>
          <_>
            <feature>
              <rects>
                <_>
                  9 0 6 12 -1.</_>
                <_>
                  9 3 6 6 2.</_></rects>
              <tilted>0</tilted></feature>
            <threshold>0.0174812097102404</threshold>
            <left_val>-0.8585413098335266</left_val>
            <right_val>0.7841436266899109</right_val></_></_></trees>
      <stage_threshold>-0.0376979708671570</stage_threshold>
      <parent>0</parent>
      <next>-1</next></_>
    <_>
      <trees>
        <_>
          <_>
            <feature>
              <rects>
                <_>
                  4 6 9 4 -1.</_>
                <_>
                  4 6 9 2 2.</_></rects>
              <tilted>1</tilted></feature>
            <threshold>-6.1922990716993809e-003</threshold>
            <left_val>0.7008544802665710</left_val>
            <right_val>-0.9999961256980896</right_val></_></_></trees>
      <stage_threshold>0.7008544802665710</stage_threshold>
      <parent>1</parent>
      <next>-1</next></_>
    <_>
      <trees>
        <_>
          <_>
            <feature>
              <rects>
                <_>
                  0 2 24 15 -1.</_>
                <_>
                  8 2 8 15 3.</_></rects>
              <tilted>0</tilted></feature>
            <threshold>0.1013481020927429</threshold>
            <left_val>-1.</left_val>
            <right_val>0.6722685098648071</right_val></_></_></trees>
      <stage_threshold>0.6722685098648071</stage_threshold>
      <parent>2</parent>
      <next>-1</next></_>
    <_>
      <trees>
        <_>
          <_>
            <feature>
              <rects>
                <_>
                  6 9 3 6 -1.</_>
                <_>
                  6 11 3 2 3.</_></rects>
              <tilted>0</tilted></feature>
            <threshold>5.3215529769659042e-003</threshold>
            <left_val>-1.</left_val>
            <right_val>0.5856568217277527</right_val></_></_></trees>
      <stage_threshold>0.5856568217277527</stage_threshold>
      <parent>3</parent>
      <next>-1</next></_>
    <_>
      <trees>
        <_>
          <_>
            <feature>
              <rects>
                <_>
                  1 22 14 1 -1.</_>
                <_>
                  8 22 7 1 2.</_></rects>
              <tilted>0</tilted></feature>
            <threshold>-8.3098020404577255e-003</threshold>
            <left_val>0.6446279883384705</left_val>
            <right_val>-0.9999964237213135</right_val></_></_></trees>
      <stage_threshold>0.6446279883384705</stage_threshold>
      <parent>4</parent>
      <next>-1</next></_>
    <_>
      <trees>
        <_>
          <_>
            <feature>
              <rects>
                <_>
                  0 8 9 1 -1.</_>
                <_>
                  3 8 3 1 3.</_></rects>
              <tilted>0</tilted></feature>
            <threshold>1.9701600540429354e-003</threshold>
            <left_val>-0.8086531758308411</left_val>
            <right_val>0.7319408059120178</right_val></_></_>
        <_>
          <_>
            <feature>
              <rects>
                <_>
                  10 5 12 3 -1.</_>
                <_>
                  14 6 4 1 9.</_></rects>
              <tilted>0</tilted></feature>
            <threshold>-0.0160297304391861</threshold>
            <left_val>-1.</left_val>
            <right_val>0.1657927036285400</right_val></_></_>
        <_>
          <_>
            <feature>
              <rects>
                <_>
                  11 5 9 1 -1.</_>
                <_>
                  14 8 3 1 3.</_></rects>
              <tilted>1</tilted></feature>
            <threshold>-0.0101773804053664</threshold>
            <left_val>0.7464625239372253</left_val>
            <right_val>-0.8637173771858215</right_val></_></_></trees>
      <stage_threshold>0.0340160094201565</stage_threshold>
      <parent>5</parent>
      <next>-1</next></_></stages></myhaar>
</opencv_storage>
